digraph Tree {
node [shape=box, style="filled, rounded", color="black", fontname="helvetica"] ;
edge [fontname="helvetica"] ;
0 [label=<Tenure &le; -1.03<br/>gini = 0.28<br/>samples = 3941<br/>value = [3277, 664]<br/>class = 0>, fillcolor="#ea9b61"] ;
1 [label=<Complain &le; 0.486<br/>gini = 0.499<br/>samples = 858<br/>value = [414, 444]<br/>class = 1>, fillcolor="#f2f8fd"] ;
0 -> 1 [labeldistance=2.5, labelangle=45, headlabel="True"] ;
2 [label=<NumberOfAddress &le; 0.115<br/>gini = 0.474<br/>samples = 550<br/>value = [338, 212]<br/>class = 0>, fillcolor="#f5d0b5"] ;
1 -> 2 ;
3 [label=<LastPurchaseDate &le; -0.833<br/>gini = 0.422<br/>samples = 419<br/>value = [292.0, 127.0]<br/>class = 0>, fillcolor="#f0b88f"] ;
2 -> 3 ;
4 [label=<WarehouseToHome &le; 0.852<br/>gini = 0.498<br/>samples = 119<br/>value = [56, 63]<br/>class = 1>, fillcolor="#e9f4fc"] ;
3 -> 4 ;
5 [label=<gini = 0.496<br/>samples = 94<br/>value = [51.0, 43.0]<br/>class = 0>, fillcolor="#fbebe0"] ;
4 -> 5 ;
6 [label=<gini = 0.32<br/>samples = 25<br/>value = [5, 20]<br/>class = 1>, fillcolor="#6ab6ec"] ;
4 -> 6 ;
7 [label=<LastPurchaseDate &le; 1.134<br/>gini = 0.336<br/>samples = 300<br/>value = [236, 64]<br/>class = 0>, fillcolor="#eca36f"] ;
3 -> 7 ;
8 [label=<gini = 0.304<br/>samples = 289<br/>value = [235, 54]<br/>class = 0>, fillcolor="#eb9e66"] ;
7 -> 8 ;
9 [label=<gini = 0.165<br/>samples = 11<br/>value = [1, 10]<br/>class = 1>, fillcolor="#4da7e8"] ;
7 -> 9 ;
10 [label=<NumberOfDeviceRegistered &le; -1.16<br/>gini = 0.456<br/>samples = 131<br/>value = [46, 85]<br/>class = 1>, fillcolor="#a4d2f3"] ;
2 -> 10 ;
11 [label=<OrderAmountHikeFromlastYear &le; -0.585<br/>gini = 0.26<br/>samples = 13<br/>value = [11, 2]<br/>class = 0>, fillcolor="#ea985d"] ;
10 -> 11 ;
12 [label=<gini = 0.0<br/>samples = 2<br/>value = [0, 2]<br/>class = 1>, fillcolor="#399de5"] ;
11 -> 12 ;
13 [label=<gini = 0.0<br/>samples = 11<br/>value = [11, 0]<br/>class = 0>, fillcolor="#e58139"] ;
11 -> 13 ;
14 [label=<OrderAmountHikeFromlastYear &le; 0.768<br/>gini = 0.417<br/>samples = 118<br/>value = [35, 83]<br/>class = 1>, fillcolor="#8cc6f0"] ;
10 -> 14 ;
15 [label=<gini = 0.347<br/>samples = 94<br/>value = [21, 73]<br/>class = 1>, fillcolor="#72b9ec"] ;
14 -> 15 ;
16 [label=<gini = 0.486<br/>samples = 24<br/>value = [14, 10]<br/>class = 0>, fillcolor="#f8dbc6"] ;
14 -> 16 ;
17 [label=<NumberOfAddress &le; -0.275<br/>gini = 0.372<br/>samples = 308<br/>value = [76, 232]<br/>class = 1>, fillcolor="#7abdee"] ;
1 -> 17 ;
18 [label=<NumberOfDeviceRegistered &le; -1.16<br/>gini = 0.439<br/>samples = 224<br/>value = [73, 151]<br/>class = 1>, fillcolor="#99ccf2"] ;
17 -> 18 ;
19 [label=<gini = 0.0<br/>samples = 13<br/>value = [13, 0]<br/>class = 0>, fillcolor="#e58139"] ;
18 -> 19 ;
20 [label=<LastPurchaseDate &le; -0.833<br/>gini = 0.407<br/>samples = 211<br/>value = [60, 151]<br/>class = 1>, fillcolor="#88c4ef"] ;
18 -> 20 ;
21 [label=<gini = 0.148<br/>samples = 62<br/>value = [5, 57]<br/>class = 1>, fillcolor="#4aa6e7"] ;
20 -> 21 ;
22 [label=<gini = 0.466<br/>samples = 149<br/>value = [55, 94]<br/>class = 1>, fillcolor="#add6f4"] ;
20 -> 22 ;
23 [label=<CouponUsed &le; -0.678<br/>gini = 0.069<br/>samples = 84<br/>value = [3, 81]<br/>class = 1>, fillcolor="#40a1e6"] ;
17 -> 23 ;
24 [label=<OrderAmountHikeFromlastYear &le; 0.768<br/>gini = 0.375<br/>samples = 12<br/>value = [3, 9]<br/>class = 1>, fillcolor="#7bbeee"] ;
23 -> 24 ;
25 [label=<gini = 0.0<br/>samples = 8<br/>value = [0, 8]<br/>class = 1>, fillcolor="#399de5"] ;
24 -> 25 ;
26 [label=<gini = 0.375<br/>samples = 4<br/>value = [3, 1]<br/>class = 0>, fillcolor="#eeab7b"] ;
24 -> 26 ;
27 [label=<gini = 0.0<br/>samples = 72<br/>value = [0, 72]<br/>class = 1>, fillcolor="#399de5"] ;
23 -> 27 ;
28 [label=<TotalSpent &le; -1.097<br/>gini = 0.133<br/>samples = 3083<br/>value = [2863, 220]<br/>class = 0>, fillcolor="#e78b48"] ;
0 -> 28 [labeldistance=2.5, labelangle=-45, headlabel="False"] ;
29 [label=<Complain &le; 0.486<br/>gini = 0.39<br/>samples = 207<br/>value = [152, 55]<br/>class = 0>, fillcolor="#eeaf81"] ;
28 -> 29 ;
30 [label=<LastPurchaseDate &le; -1.114<br/>gini = 0.285<br/>samples = 157<br/>value = [130, 27]<br/>class = 0>, fillcolor="#ea9b62"] ;
29 -> 30 ;
31 [label=<CityTier &le; -0.179<br/>gini = 0.464<br/>samples = 52<br/>value = [33, 19]<br/>class = 0>, fillcolor="#f4caab"] ;
30 -> 31 ;
32 [label=<gini = 0.393<br/>samples = 41<br/>value = [30, 11]<br/>class = 0>, fillcolor="#efaf82"] ;
31 -> 32 ;
33 [label=<gini = 0.397<br/>samples = 11<br/>value = [3, 8]<br/>class = 1>, fillcolor="#83c2ef"] ;
31 -> 33 ;
34 [label=<OrderAmountHikeFromlastYear &le; -0.811<br/>gini = 0.141<br/>samples = 105<br/>value = [97, 8]<br/>class = 0>, fillcolor="#e78b49"] ;
30 -> 34 ;
35 [label=<gini = 0.48<br/>samples = 10<br/>value = [6, 4]<br/>class = 0>, fillcolor="#f6d5bd"] ;
34 -> 35 ;
36 [label=<gini = 0.081<br/>samples = 95<br/>value = [91, 4]<br/>class = 0>, fillcolor="#e68742"] ;
34 -> 36 ;
37 [label=<CustomerSentimentScore &le; 0.315<br/>gini = 0.493<br/>samples = 50<br/>value = [22.0, 28.0]<br/>class = 1>, fillcolor="#d5eaf9"] ;
29 -> 37 ;
38 [label=<NumberOfAddress &le; 0.115<br/>gini = 0.452<br/>samples = 29<br/>value = [19, 10]<br/>class = 0>, fillcolor="#f3c3a1"] ;
37 -> 38 ;
39 [label=<gini = 0.287<br/>samples = 23<br/>value = [19, 4]<br/>class = 0>, fillcolor="#ea9c63"] ;
38 -> 39 ;
40 [label=<gini = 0.0<br/>samples = 6<br/>value = [0, 6]<br/>class = 1>, fillcolor="#399de5"] ;
38 -> 40 ;
41 [label=<PreferedOrderCat_Laptop & Accessory &le; 0.5<br/>gini = 0.245<br/>samples = 21<br/>value = [3, 18]<br/>class = 1>, fillcolor="#5aade9"] ;
37 -> 41 ;
42 [label=<gini = 0.18<br/>samples = 20<br/>value = [2, 18]<br/>class = 1>, fillcolor="#4fa8e8"] ;
41 -> 42 ;
43 [label=<gini = 0.0<br/>samples = 1<br/>value = [1, 0]<br/>class = 0>, fillcolor="#e58139"] ;
41 -> 43 ;
44 [label=<Complain &le; 0.486<br/>gini = 0.108<br/>samples = 2876<br/>value = [2711, 165]<br/>class = 0>, fillcolor="#e78945"] ;
28 -> 44 ;
45 [label=<CouponUsed &le; 2.55<br/>gini = 0.068<br/>samples = 2125<br/>value = [2050, 75]<br/>class = 0>, fillcolor="#e68640"] ;
44 -> 45 ;
46 [label=<Tenure &le; 1.363<br/>gini = 0.06<br/>samples = 2031<br/>value = [1968, 63]<br/>class = 0>, fillcolor="#e6853f"] ;
45 -> 46 ;
47 [label=<gini = 0.071<br/>samples = 1709<br/>value = [1646, 63]<br/>class = 0>, fillcolor="#e68641"] ;
46 -> 47 ;
48 [label=<gini = 0.0<br/>samples = 322<br/>value = [322, 0]<br/>class = 0>, fillcolor="#e58139"] ;
46 -> 48 ;
49 [label=<RFMCustomerSegment_Average Customer &le; 0.5<br/>gini = 0.223<br/>samples = 94<br/>value = [82.0, 12.0]<br/>class = 0>, fillcolor="#e99356"] ;
45 -> 49 ;
50 [label=<gini = 0.194<br/>samples = 92<br/>value = [82, 10]<br/>class = 0>, fillcolor="#e89051"] ;
49 -> 50 ;
51 [label=<gini = 0.0<br/>samples = 2<br/>value = [0, 2]<br/>class = 1>, fillcolor="#399de5"] ;
49 -> 51 ;
52 [label=<NumberOfAddress &le; 0.895<br/>gini = 0.211<br/>samples = 751<br/>value = [661, 90]<br/>class = 0>, fillcolor="#e99254"] ;
44 -> 52 ;
53 [label=<Tenure &le; 0.526<br/>gini = 0.152<br/>samples = 615<br/>value = [564, 51]<br/>class = 0>, fillcolor="#e78c4b"] ;
52 -> 53 ;
54 [label=<gini = 0.233<br/>samples = 371<br/>value = [321.0, 50.0]<br/>class = 0>, fillcolor="#e99558"] ;
53 -> 54 ;
55 [label=<gini = 0.008<br/>samples = 244<br/>value = [243, 1]<br/>class = 0>, fillcolor="#e5823a"] ;
53 -> 55 ;
56 [label=<PreferedOrderCat_Laptop & Accessory &le; 0.5<br/>gini = 0.409<br/>samples = 136<br/>value = [97, 39]<br/>class = 0>, fillcolor="#efb489"] ;
52 -> 56 ;
57 [label=<gini = 0.486<br/>samples = 84<br/>value = [49, 35]<br/>class = 0>, fillcolor="#f8dbc6"] ;
56 -> 57 ;
58 [label=<gini = 0.142<br/>samples = 52<br/>value = [48, 4]<br/>class = 0>, fillcolor="#e78c49"] ;
56 -> 58 ;
}